## LambdaMART
## No. of trees = 10
## No. of leaves = 8
## No. of threshold candidates = -1
## Learning rate = 0.100000
## Stop early = 0


<ensemble>
	<tree id="1" weight="0.10000000">
		<split>
			<feature> 128 </feature>
			<threshold> 7821431.00000000 </threshold>
			<split pos="left">
				<feature> 51 </feature>
				<threshold> 0.09946100 </threshold>
				<split pos="left">
					<feature> 130 </feature>
					<threshold> 267.00000000 </threshold>
					<split pos="left">
						<feature> 130 </feature>
						<threshold> 265.00000000 </threshold>
						<split pos="left">
							<feature> 50 </feature>
							<threshold> 0.33871001 </threshold>
							<split pos="left">
								<feature> 16 </feature>
								<threshold> 3.42681694 </threshold>
								<split pos="left">
									<output> -1.875589091605961 </output>
								</split>
								<split pos="right">
									<output> -0.247606964887704 </output>
								</split>
							</split>
							<split pos="right">
								<output> -2.000000000000000 </output>
							</split>
						</split>
						<split pos="right">
							<output> -1.756648768765406 </output>
						</split>
					</split>
					<split pos="right">
						<output> 0.112311001218634 </output>
					</split>
				</split>
				<split pos="right">
					<feature> 130 </feature>
					<threshold> 121.00000000 </threshold>
					<split pos="left">
						<output> 1.943965563657588 </output>
					</split>
					<split pos="right">
						<output> 0.912257038189274 </output>
					</split>
				</split>
			</split>
			<split pos="right">
				<output> 1.843585771092257 </output>
			</split>
		</split>
	</tree>
	<tree id="2" weight="0.10000000">
		<split>
			<feature> 128 </feature>
			<threshold> 30648076.00000000 </threshold>
			<split pos="left">
				<feature> 128 </feature>
				<threshold> 11089534.00000000 </threshold>
				<split pos="left">
					<feature> 51 </feature>
					<threshold> 0.09946100 </threshold>
					<split pos="left">
						<feature> 128 </feature>
						<threshold> 7821431.00000000 </threshold>
						<split pos="left">
							<feature> 108 </feature>
							<threshold> 12.47601509 </threshold>
							<split pos="left">
								<output> -0.601264549513556 </output>
							</split>
							<split pos="right">
								<output> 0.293356586935828 </output>
							</split>
						</split>
						<split pos="right">
							<output> 1.613911960811710 </output>
						</split>
					</split>
					<split pos="right">
						<feature> 116 </feature>
						<threshold> -21.66205215 </threshold>
						<split pos="left">
							<output> 1.917164882348662 </output>
						</split>
						<split pos="right">
							<feature> 130 </feature>
							<threshold> 121.00000000 </threshold>
							<split pos="left">
								<output> 1.747173079440621 </output>
							</split>
							<split pos="right">
								<output> 0.079140133744068 </output>
							</split>
						</split>
					</split>
				</split>
				<split pos="right">
					<output> -1.901082072669440 </output>
				</split>
			</split>
			<split pos="right">
				<output> 1.306103058468834 </output>
			</split>
		</split>
	</tree>
	<tree id="3" weight="0.10000000">
		<split>
			<feature> 128 </feature>
			<threshold> 30648076.00000000 </threshold>
			<split pos="left">
				<feature> 51 </feature>
				<threshold> 0.09946100 </threshold>
				<split pos="left">
					<feature> 48 </feature>
					<threshold> 0.35714301 </threshold>
					<split pos="left">
						<output> -0.505592075848569 </output>
					</split>
					<split pos="right">
						<feature> 127 </feature>
						<threshold> 12.00000000 </threshold>
						<split pos="left">
							<output> 1.870147985209805 </output>
						</split>
						<split pos="right">
							<output> 0.550356364535145 </output>
						</split>
					</split>
				</split>
				<split pos="right">
					<feature> 114 </feature>
					<threshold> -25.34300423 </threshold>
					<split pos="left">
						<output> 1.727977985494658 </output>
					</split>
					<split pos="right">
						<feature> 130 </feature>
						<threshold> 123.00000000 </threshold>
						<split pos="left">
							<output> 1.582878531387180 </output>
						</split>
						<split pos="right">
							<feature> 136 </feature>
							<threshold> 70.26667023 </threshold>
							<split pos="left">
								<output> -0.094592846257688 </output>
							</split>
							<split pos="right">
								<output> 1.725014509026190 </output>
							</split>
						</split>
					</split>
				</split>
			</split>
			<split pos="right">
				<output> 1.166496465365885 </output>
			</split>
		</split>
	</tree>
	<tree id="4" weight="0.10000000">
		<split>
			<feature> 128 </feature>
			<threshold> 30648076.00000000 </threshold>
			<split pos="left">
				<feature> 48 </feature>
				<threshold> 0.35714301 </threshold>
				<split pos="left">
					<output> -0.670815605254231 </output>
				</split>
				<split pos="right">
					<feature> 127 </feature>
					<threshold> 12.00000000 </threshold>
					<split pos="left">
						<output> 1.473131237660741 </output>
					</split>
					<split pos="right">
						<feature> 136 </feature>
						<threshold> 141.85000610 </threshold>
						<split pos="left">
							<feature> 118 </feature>
							<threshold> -6.19870281 </threshold>
							<split pos="left">
								<feature> 122 </feature>
								<threshold> -1.59700096 </threshold>
								<split pos="left">
									<feature> 16 </feature>
									<threshold> 3.42681694 </threshold>
									<split pos="left">
										<output> 0.966784695553604 </output>
									</split>
									<split pos="right">
										<output> 0.390060218535118 </output>
									</split>
								</split>
								<split pos="right">
									<output> -1.373690329173601 </output>
								</split>
							</split>
							<split pos="right">
								<output> 1.634916872041911 </output>
							</split>
						</split>
						<split pos="right">
							<output> 1.503036178763613 </output>
						</split>
					</split>
				</split>
			</split>
			<split pos="right">
				<output> 1.048936733386483 </output>
			</split>
		</split>
	</tree>
	<tree id="5" weight="0.10000000">
		<split>
			<feature> 128 </feature>
			<threshold> 30648076.00000000 </threshold>
			<split pos="left">
				<feature> 136 </feature>
				<threshold> 141.86825562 </threshold>
				<split pos="left">
					<feature> 78 </feature>
					<threshold> 29.51687431 </threshold>
					<split pos="left">
						<feature> 134 </feature>
						<threshold> 625.00000000 </threshold>
						<split pos="left">
							<feature> 48 </feature>
							<threshold> 0.35714301 </threshold>
							<split pos="left">
								<output> -0.739798943165897 </output>
							</split>
							<split pos="right">
								<feature> 127 </feature>
								<threshold> 12.00000000 </threshold>
								<split pos="left">
									<output> 1.059336102906034 </output>
								</split>
								<split pos="right">
									<feature> 132 </feature>
									<threshold> 4.00000000 </threshold>
									<split pos="left">
										<output> 0.762570738455597 </output>
									</split>
									<split pos="right">
										<output> -0.097088038907784 </output>
									</split>
								</split>
							</split>
						</split>
						<split pos="right">
							<output> 1.652914363743948 </output>
						</split>
					</split>
					<split pos="right">
						<output> 1.379112408026168 </output>
					</split>
				</split>
				<split pos="right">
					<output> 1.130034027089136 </output>
				</split>
			</split>
			<split pos="right">
				<output> 0.937230757667553 </output>
			</split>
		</split>
	</tree>
	<tree id="6" weight="0.10000000">
		<split>
			<feature> 128 </feature>
			<threshold> 30648076.00000000 </threshold>
			<split pos="left">
				<feature> 78 </feature>
				<threshold> 29.51687431 </threshold>
				<split pos="left">
					<feature> 48 </feature>
					<threshold> 0.38461500 </threshold>
					<split pos="left">
						<output> -0.703642689609507 </output>
					</split>
					<split pos="right">
						<feature> 136 </feature>
						<threshold> 65.26380920 </threshold>
						<split pos="left">
							<feature> 127 </feature>
							<threshold> 12.00000000 </threshold>
							<split pos="left">
								<output> 0.783709325567195 </output>
							</split>
							<split pos="right">
								<feature> 16 </feature>
								<threshold> 4.19769716 </threshold>
								<split pos="left">
									<output> 0.834784562473286 </output>
								</split>
								<split pos="right">
									<output> 0.209735734061236 </output>
								</split>
							</split>
						</split>
						<split pos="right">
							<feature> 85 </feature>
							<threshold> 7.72376108 </threshold>
							<split pos="left">
								<output> 1.510118666324014 </output>
							</split>
							<split pos="right">
								<output> 1.289502629072611 </output>
							</split>
						</split>
					</split>
				</split>
				<split pos="right">
					<output> 1.248014776271475 </output>
				</split>
			</split>
			<split pos="right">
				<output> 0.831440598903950 </output>
			</split>
		</split>
	</tree>
	<tree id="7" weight="0.10000000">
		<split>
			<feature> 78 </feature>
			<threshold> 29.51687431 </threshold>
			<split pos="left">
				<feature> 128 </feature>
				<threshold> 30648076.00000000 </threshold>
				<split pos="left">
					<feature> 48 </feature>
					<threshold> 0.38461500 </threshold>
					<split pos="left">
						<output> -0.706228517461288 </output>
					</split>
					<split pos="right">
						<feature> 136 </feature>
						<threshold> 65.00000000 </threshold>
						<split pos="left">
							<feature> 16 </feature>
							<threshold> 4.19769716 </threshold>
							<split pos="left">
								<output> 0.756798874792865 </output>
							</split>
							<split pos="right">
								<feature> 127 </feature>
								<threshold> 18.00000000 </threshold>
								<split pos="left">
									<output> 0.852489602302109 </output>
								</split>
								<split pos="right">
									<output> 0.106426603279699 </output>
								</split>
							</split>
						</split>
						<split pos="right">
							<feature> 127 </feature>
							<threshold> 11.00000000 </threshold>
							<split pos="left">
								<output> 1.472483763631282 </output>
							</split>
							<split pos="right">
								<output> 1.058133544642550 </output>
							</split>
						</split>
					</split>
				</split>
				<split pos="right">
					<output> 0.738642365270118 </output>
				</split>
			</split>
			<split pos="right">
				<output> 1.074827497397865 </output>
			</split>
		</split>
	</tree>
	<tree id="8" weight="0.10000000">
		<split>
			<feature> 78 </feature>
			<threshold> 29.51687431 </threshold>
			<split pos="left">
				<feature> 128 </feature>
				<threshold> 30648076.00000000 </threshold>
				<split pos="left">
					<feature> 48 </feature>
					<threshold> 0.41176501 </threshold>
					<split pos="left">
						<output> -0.549290219070379 </output>
					</split>
					<split pos="right">
						<feature> 127 </feature>
						<threshold> 12.00000000 </threshold>
						<split pos="left">
							<output> 1.222908649215009 </output>
						</split>
						<split pos="right">
							<feature> 136 </feature>
							<threshold> 65.00000000 </threshold>
							<split pos="left">
								<feature> 127 </feature>
								<threshold> 18.00000000 </threshold>
								<split pos="left">
									<output> 1.085462817134849 </output>
								</split>
								<split pos="right">
									<feature> 132 </feature>
									<threshold> 4.00000000 </threshold>
									<split pos="left">
										<output> 0.528985201410656 </output>
									</split>
									<split pos="right">
										<output> -0.604783877748347 </output>
									</split>
								</split>
							</split>
							<split pos="right">
								<output> 0.920385574554509 </output>
							</split>
						</split>
					</split>
				</split>
				<split pos="right">
					<output> 0.652591479886162 </output>
				</split>
			</split>
			<split pos="right">
				<output> 1.007543294471690 </output>
			</split>
		</split>
	</tree>
	<tree id="9" weight="0.10000000">
		<split>
			<feature> 78 </feature>
			<threshold> 29.51687431 </threshold>
			<split pos="left">
				<feature> 128 </feature>
				<threshold> 76826000.00000000 </threshold>
				<split pos="left">
					<feature> 128 </feature>
					<threshold> 65909672.00000000 </threshold>
					<split pos="left">
						<feature> 134 </feature>
						<threshold> 1.00000000 </threshold>
						<split pos="left">
							<feature> 108 </feature>
							<threshold> 14.60502720 </threshold>
							<split pos="left">
								<output> -0.705362416722218 </output>
							</split>
							<split pos="right">
								<feature> 16 </feature>
								<threshold> 3.42681694 </threshold>
								<split pos="left">
									<output> 1.445772843564862 </output>
								</split>
								<split pos="right">
									<feature> 136 </feature>
									<threshold> 141.85000610 </threshold>
									<split pos="left">
										<output> 0.210333341606084 </output>
									</split>
									<split pos="right">
										<output> 0.925687169183516 </output>
									</split>
								</split>
							</split>
						</split>
						<split pos="right">
							<output> 1.204799453225744 </output>
						</split>
					</split>
					<split pos="right">
						<output> 1.306015899208628 </output>
					</split>
				</split>
				<split pos="right">
					<output> -4.631368808107815 </output>
				</split>
			</split>
			<split pos="right">
				<output> 0.870380674154216 </output>
			</split>
		</split>
	</tree>
	<tree id="10" weight="0.10000000">
		<split>
			<feature> 78 </feature>
			<threshold> 29.51687431 </threshold>
			<split pos="left">
				<feature> 134 </feature>
				<threshold> 1.00000000 </threshold>
				<split pos="left">
					<feature> 128 </feature>
					<threshold> 76826000.00000000 </threshold>
					<split pos="left">
						<feature> 128 </feature>
						<threshold> 65909672.00000000 </threshold>
						<split pos="left">
							<feature> 128 </feature>
							<threshold> 30648076.00000000 </threshold>
							<split pos="left">
								<feature> 110 </feature>
								<threshold> 59.11853790 </threshold>
								<split pos="left">
									<feature> 108 </feature>
									<threshold> 14.60502720 </threshold>
									<split pos="left">
										<output> -0.721229587711414 </output>
									</split>
									<split pos="right">
										<output> 0.284327070058748 </output>
									</split>
								</split>
								<split pos="right">
									<output> 1.387679482328786 </output>
								</split>
							</split>
							<split pos="right">
								<output> 0.669466496851315 </output>
							</split>
						</split>
						<split pos="right">
							<output> 1.253943938356748 </output>
						</split>
					</split>
					<split pos="right">
						<output> -3.452344209066701 </output>
					</split>
				</split>
				<split pos="right">
					<output> 1.053342245399065 </output>
				</split>
			</split>
			<split pos="right">
				<output> 0.737946201770809 </output>
			</split>
		</split>
	</tree>
</ensemble>
